18 100
am -0.005000 0.004003 0.004419 -0.003830 -0.003278 0.001367 0.003021 0.000941 0.000211 -0.003604 0.002218 -0.004356 0.001250 -0.000751 -0.000957 -0.003316 -0.001882 0.002579 0.003025 0.002969 0.001597 0.001545 -0.003803 -0.004096 0.004970 0.003801 0.003090 -0.000604 0.004016 -0.000495 0.000735 -0.000149 -0.002983 0.001312 -0.001337 -0.003825 0.004754 0.004379 -0.001095 -0.000226 0.000509 -0.003638 -0.004007 0.004555 0.000063 -0.002582 -0.003042 -0.003076 0.001697 0.000201 0.001331 -0.004214 -0.003808 -0.000130 0.001144 0.002550 -0.003170 0.004080 0.000927 0.001120 -0.000608 0.002986 -0.002288 -0.002097 0.002158 -0.000753 0.001031 0.001805 -0.004089 -0.001983 0.002914 0.004232 0.003932 -0.003047 -0.002108 -0.000909 0.002001 -0.003788 0.002998 0.002788 -0.001599 -0.001552 -0.002238 0.004229 0.003912 -0.001180 0.004215 0.004820 0.001815 0.004983 -0.003111 -0.001532 -0.002107 -0.002907 0.002815 0.001579 0.000425 -0.002194 0.001524 0.003059 
-0.001127 -0.004434 -0.003260 0.003485 0.001005 -0.002363 -0.001592 0.002495 -0.003533 -0.002313 0.004734 0.004248 -0.003959 0.000871 -0.002250 0.000152 0.003007 0.004846 0.001987 0.004113 0.003147 -0.000231 0.004475 0.002536 0.004741 -0.001705 0.004747 0.004329 -0.001427 -0.004420 0.004833 0.000897 -0.002079 -0.000718 -0.000736 -0.003853 -0.001431 -0.000444 -0.004927 -0.003516 -0.001203 -0.000941 0.001790 0.000816 -0.000614 0.002946 0.001446 0.000548 0.003617 -0.001125 -0.001427 -0.000414 -0.002728 -0.003000 0.000202 0.004338 -0.001367 -0.000021 -0.004135 0.003709 -0.001520 0.002968 -0.002409 -0.000895 0.000094 0.003623 -0.000086 0.004433 -0.000743 0.002100 -0.000137 -0.003902 0.004251 0.001056 -0.003029 0.003008 -0.004145 -0.004354 0.003268 -0.003432 -0.002648 0.003528 0.003285 0.000685 0.004523 0.004857 0.004055 0.001765 -0.004350 0.002289 -0.004892 -0.001286 0.001512 0.000981 -0.001525 0.002938 -0.004608 -0.001411 -0.001312 -0.001656 
</s> 0.003071 -0.004731 0.002778 0.001338 0.002830 0.003678 0.000276 0.000826 -0.004550 -0.001028 0.003214 -0.001786 0.004213 -0.001194 -0.003878 -0.002591 0.004899 0.003338 -0.003967 0.004817 -0.004209 -0.004777 0.002476 -0.000656 -0.002331 -0.000381 -0.002516 0.002396 0.003815 0.004180 -0.004412 -0.002120 0.000009 -0.000937 0.003818 0.002202 0.004534 -0.003075 0.001707 0.004268 -0.001830 0.002922 0.001285 -0.004516 0.004198 0.004709 -0.002916 -0.000243 -0.001600 0.002444 -0.003865 0.003493 -0.000942 -0.001217 -0.002031 -0.004402 -0.003049 -0.001119 0.004618 -0.002521 -0.004637 0.000396 0.000612 0.003041 0.000073 0.003482 0.002983 -0.001309 -0.000637 0.000797 0.001263 0.003335 0.004014 -0.002503 -0.002518 -0.001620 -0.002691 0.001238 -0.003829 -0.002269 -0.004974 0.002176 0.004363 -0.002205 -0.004551 0.002968 0.001587 -0.002522 -0.000641 -0.001231 -0.000123 -0.001813 0.000036 -0.002764 0.003761 0.003827 0.003261 -0.001474 0.000273 0.000805 
-0.001357 0.002048 0.003517 -0.003788 0.001000 0.003601 0.003769 -0.004124 0.002780 -0.002648 -0.001477 0.001252 0.002266 -0.004044 -0.002690 0.001248 0.000238 0.004570 0.002162 -0.002731 -0.000023 0.000850 -0.002391 0.003222 -0.002735 0.004952 0.000683 -0.004488 0.000383 -0.000468 0.000916 0.003047 0.000113 -0.000252 0.000338 -0.002768 -0.000265 0.003254 0.003481 0.001974 -0.004969 0.000208 -0.002625 0.003679 0.004282 0.003265 0.001553 0.001253 -0.001730 -0.002418 -0.001954 -0.003898 0.000275 0.000815 0.001384 0.002133 -0.003921 0.003121 -0.001402 -0.004248 0.003963 -0.002845 -0.000778 -0.004135 0.004708 -0.001927 -0.004716 0.003878 0.001596 0.003533 0.001318 0.003698 0.000407 0.003690 0.004353 0.001731 -0.000576 0.001200 0.003921 -0.003117 -0.000573 0.001220 0.002054 0.000560 0.003698 0.001406 0.003283 -0.003331 -0.001983 0.001915 0.004639 0.001616 0.000667 -0.004598 -0.004348 0.004307 0.002428 -0.002977 -0.001644 -0.003852 
I -0.003419 0.004436 -0.002720 0.001046 -0.001092 -0.002204 -0.000545 -0.004593 -0.002309 -0.000240 0.004415 -0.001862 0.003709 -0.004517 0.004188 0.000643 0.000246 0.002622 0.003307 -0.003170 0.003081 0.001334 -0.001196 0.003105 0.000496 0.004274 0.000208 -0.001626 0.003272 -0.003401 -0.000448 0.004044 0.004691 -0.004036 0.001366 0.004020 0.000534 0.002527 0.002683 0.004709 -0.000918 -0.001056 0.003033 -0.004983 0.001116 0.000370 0.004447 -0.003649 -0.000082 0.004463 0.001457 0.002616 0.001269 0.001378 0.001094 0.000219 0.003450 0.003771 0.002889 -0.001933 -0.002758 -0.003201 -0.001127 -0.002436 -0.004073 -0.001882 0.003578 0.002619 -0.004715 -0.002116 0.004035 -0.000364 0.003599 -0.001246 -0.000224 -0.002478 0.001649 -0.004117 0.002831 -0.002316 0.002716 -0.003071 -0.002269 0.004027 0.002583 0.002047 0.001509 0.002959 -0.000471 0.003893 0.003694 0.003384 0.004337 -0.002376 -0.003681 -0.003290 0.000287 0.000896 0.003915 -0.003158 
0.002915 0.004242 -0.002001 0.003792 -0.004972 0.004184 -0.002384 -0.000734 -0.004842 0.003042 0.004079 -0.004078 -0.000914 0.000972 0.004419 0.000166 -0.004905 0.000631 -0.001833 0.000904 0.003966 -0.002825 -0.002645 -0.000458 -0.001022 -0.001741 -0.003487 -0.000013 -0.004085 0.004041 0.002673 -0.001355 0.003057 -0.002823 -0.004633 0.004422 0.001185 0.002822 -0.003375 -0.001276 0.003580 -0.001367 0.000978 -0.004542 -0.003975 0.004766 -0.004541 0.001030 -0.003201 0.003878 -0.000402 0.004346 -0.003315 0.001125 -0.004574 -0.003188 -0.001036 0.004163 -0.002525 0.002336 -0.000584 0.003148 0.002776 -0.002679 -0.003677 0.000736 0.000860 0.000677 0.000467 0.002084 0.003758 0.003807 -0.004872 0.004849 -0.003997 0.000619 -0.003912 -0.000815 0.004624 -0.002481 0.001629 -0.002250 -0.000847 0.003413 0.002530 -0.004300 0.001622 -0.000292 0.002074 0.000691 -0.003438 0.000309 -0.003958 0.002879 0.001003 0.001623 0.002715 0.004921 0.004478 0.002556 
student 0.002874 0.001972 -0.000983 0.004515 -0.000199 0.001689 -0.000848 0.001405 -0.000723 0.004229 0.001914 -0.000367 -0.000417 0.002247 -0.003166 -0.001894 0.001500 0.000900 -0.004057 -0.001772 -0.001691 -0.002156 0.003774 0.003908 -0.004207 0.003235 -0.002644 0.001550 0.002232 -0.000270 -0.003779 0.000061 -0.001593 0.002485 0.002401 0.000848 -0.002401 -0.000845 0.000426 -0.002184 -0.004410 -0.000102 -0.002671 -0.002627 0.000662 -0.002631 0.002640 -0.001577 0.003595 -0.003275 -0.001610 0.002374 -0.002330 -0.004377 -0.000889 0.003131 -0.001331 0.004217 0.001833 -0.002898 0.004873 -0.004835 -0.003911 0.003191 -0.002936 0.003622 0.003910 0.002806 -0.001478 -0.002754 -0.000174 -0.000147 -0.004971 -0.003808 0.000869 0.000737 0.004866 0.003116 -0.003430 0.004366 -0.001186 0.003176 -0.001039 0.002144 0.000155 0.004026 0.002572 -0.002020 0.004670 -0.004177 0.004436 -0.001721 0.000640 0.001224 0.004082 0.001946 -0.001154 -0.004615 0.003544 0.000389 
0.004033 -0.002382 -0.003721 0.000444 0.002932 0.002355 0.003543 0.004385 0.000943 -0.004774 0.002496 -0.002523 0.001347 0.003889 -0.002330 0.003625 -0.000076 -0.001501 -0.003904 -0.000764 0.004956 0.001713 -0.002695 0.003216 -0.002775 -0.001314 0.003329 -0.003029 0.000011 -0.002925 -0.001302 0.004408 -0.000904 -0.002963 0.000444 0.001933 0.002761 0.001227 -0.001901 -0.001548 0.001788 0.004802 0.003692 -0.004628 -0.000543 -0.004583 0.001757 -0.003402 0.001550 0.003231 -0.000676 -0.001463 -0.003652 0.000897 -0.004077 0.000096 0.004632 0.003574 0.003587 0.002679 -0.000316 -0.001084 -0.003153 0.000194 -0.002715 -0.002919 0.002734 -0.000952 -0.004285 0.000724 0.000779 -0.001855 -0.004242 -0.004998 0.003014 -0.001107 0.000692 -0.002429 0.003969 -0.004803 -0.003699 -0.001413 0.000676 0.003464 0.000864 0.000707 0.002666 0.002600 -0.004836 -0.000914 0.001971 0.004012 0.002482 0.001382 0.003122 0.001606 -0.001402 -0.002250 0.003149 0.001787 
Tsinghua 0.001795 0.000846 0.001585 0.003462 0.002852 -0.004173 0.000460 -0.001962 -0.004947 0.000349 0.004306 -0.000580 0.004177 0.004568 0.000154 0.004016 -0.001494 0.001141 -0.002465 0.000730 -0.001178 -0.004776 -0.001520 0.000970 -0.001595 0.004473 -0.002479 -0.001358 0.003037 -0.000956 0.001689 0.000151 0.000999 0.001593 0.000516 0.004405 0.003072 -0.002723 -0.003969 0.002809 0.002538 0.003752 0.002768 -0.000731 -0.004822 0.001175 -0.002244 0.000193 -0.000727 0.002201 0.000528 0.004485 -0.004396 0.001987 0.003114 0.003553 -0.002547 -0.001812 0.000046 0.001303 0.000600 0.000963 -0.001646 0.004140 0.003328 0.002965 -0.002429 0.000972 -0.003583 -0.000648 -0.000272 0.003204 0.003148 -0.002219 -0.000645 0.004743 -0.000696 -0.001594 0.003484 0.001994 0.003164 0.003885 0.001646 0.003865 -0.004489 -0.000626 -0.004127 0.001761 -0.000375 0.002529 0.000695 -0.000411 0.001289 0.003506 0.003144 0.003755 -0.001218 0.004962 0.002752 0.003164 
-0.003160 0.000144 -0.003048 0.002887 -0.002942 0.003582 -0.002356 -0.004549 -0.000019 -0.003126 -0.002631 -0.002365 -0.003610 -0.004825 -0.001842 0.000843 -0.000433 -0.003857 0.004543 -0.001017 -0.004707 -0.000068 0.003555 -0.001538 0.001848 -0.000800 0.004725 -0.001816 0.000015 -0.000897 0.000084 -0.000443 0.003075 -0.002703 0.004164 -0.003514 -0.003191 0.003939 0.003996 -0.004622 -0.000503 0.001683 -0.000888 -0.004861 0.001922 -0.004312 0.001542 -0.002824 -0.002635 0.003608 -0.004183 -0.004605 0.001606 -0.004399 -0.001030 -0.003799 0.002927 0.004323 0.000530 -0.001499 0.002110 0.004929 0.002530 0.003702 0.002435 -0.004924 -0.000499 -0.004290 -0.000315 0.004920 -0.001526 0.000930 0.002139 -0.002882 -0.001020 -0.001731 0.000579 -0.003174 0.003050 -0.000866 -0.001712 0.001699 -0.004783 -0.002569 0.001044 0.001895 0.002510 -0.000435 -0.002868 0.000070 0.004461 0.004444 -0.002670 0.001379 0.003102 0.003473 0.004921 0.003479 0.002963 0.000558 
Science. -0.004314 -0.003474 0.001077 0.002107 -0.002095 0.003177 -0.003027 -0.002976 0.002362 -0.001412 0.002684 -0.003283 0.002335 0.000415 0.002741 -0.004908 0.003608 -0.001186 0.004175 -0.001446 0.004461 -0.003558 -0.003483 -0.003989 -0.004325 -0.001546 0.001798 -0.001132 0.000531 0.002507 0.004550 0.001032 0.004812 -0.001242 0.001804 -0.001092 -0.003203 -0.000138 0.003091 0.001404 -0.002731 0.000976 0.000443 -0.000075 -0.000492 -0.000244 -0.001610 -0.001622 -0.000704 -0.003642 0.003965 0.003169 0.004915 0.003439 -0.003303 0.003203 -0.002856 -0.003846 -0.001381 -0.000111 -0.000733 0.002161 0.004262 -0.002870 -0.002937 0.001614 0.000657 0.001335 -0.001186 -0.002828 -0.002666 0.001409 -0.004699 0.003989 -0.003673 -0.001242 -0.000194 -0.000278 0.002165 -0.002711 -0.001890 0.004527 0.001880 0.003408 -0.001506 0.001061 -0.004997 -0.003979 0.001739 0.004479 0.003566 -0.003466 0.001127 0.002439 0.002099 -0.001146 0.002439 -0.004904 -0.002366 -0.000613 
-0.001320 0.002289 0.001112 0.000340 0.002247 -0.004165 -0.001488 -0.000816 0.004614 0.003453 0.004790 0.000615 0.004060 -0.002201 -0.000524 0.003540 0.001368 0.004030 0.004601 -0.000634 -0.000182 -0.000198 0.004697 0.001999 -0.004808 -0.004728 -0.003206 -0.002156 -0.004228 0.003094 0.000425 -0.004192 0.002337 -0.001573 -0.002379 -0.002702 -0.001830 -0.001074 0.002912 -0.003780 -0.000948 0.004747 0.003330 -0.001021 0.003264 -0.001454 -0.001594 0.004483 0.001588 -0.004520 0.000172 0.004137 -0.002696 0.003206 0.003158 0.001847 -0.003807 0.001878 0.004397 0.004021 -0.003462 0.004154 0.003418 -0.000437 -0.000881 -0.004810 0.002254 -0.000119 -0.002782 0.002642 -0.004564 -0.001119 -0.003384 -0.003334 -0.000005 0.002968 -0.004407 -0.000082 -0.004538 0.001050 0.004932 -0.002444 0.003868 0.004532 -0.002086 -0.002766 -0.000255 -0.002679 0.000319 -0.000891 0.000124 -0.004178 0.000430 -0.004161 0.004537 -0.001057 -0.000973 0.002578 -0.004987 -0.001911 
science -0.000609 -0.003018 -0.003914 -0.002833 -0.002696 -0.000790 0.004785 0.002583 0.001048 0.001915 0.000643 0.003242 0.001402 0.000256 -0.004310 0.000553 0.001649 0.001887 0.004457 -0.001581 -0.002430 -0.003034 0.003977 0.003249 -0.002554 -0.001852 0.003780 0.003948 0.002059 0.000590 -0.004103 0.001922 0.004689 0.001948 0.004860 0.001078 0.001118 0.002379 -0.002300 -0.002178 -0.000373 0.004537 0.003948 0.001060 0.000997 0.003581 -0.004364 0.002198 -0.001490 -0.002834 -0.002706 -0.004857 -0.002054 -0.004553 -0.004046 -0.003699 -0.002412 0.001083 0.001148 0.004578 -0.001784 -0.000772 0.004906 0.001380 0.003112 -0.002461 0.001759 0.000614 -0.001944 -0.003828 -0.001260 -0.001314 0.001331 -0.002216 -0.004621 0.004502 0.003717 -0.002469 0.003707 -0.000531 -0.001505 0.003069 -0.001744 -0.002508 0.001447 0.004554 -0.003943 0.004978 0.000855 0.004642 -0.003359 0.000833 -0.002502 -0.001509 0.002040 -0.003537 0.004660 0.003755 -0.003216 -0.004225 
-0.000603 -0.002977 0.002352 0.004522 -0.004155 -0.000418 -0.002758 0.004801 -0.000314 0.002932 0.003354 0.003136 -0.003299 -0.002770 -0.002283 -0.004065 -0.004829 -0.004869 -0.000136 0.002102 -0.004123 0.001791 0.001825 0.003045 0.002101 0.004868 -0.001868 0.002670 -0.000376 0.004517 -0.004185 -0.002617 -0.003274 0.003395 0.004407 -0.003911 0.004190 -0.003343 -0.004061 0.000196 -0.004703 0.001960 0.004941 0.003610 -0.004173 -0.000539 -0.001555 0.002737 0.004063 0.001815 -0.004018 -0.003518 0.000784 0.004179 -0.000416 -0.003747 -0.000726 0.004209 0.003781 -0.004044 -0.004688 0.002061 -0.004395 0.001997 -0.002820 0.000392 0.004588 0.003282 -0.004340 0.004357 0.002760 0.001217 0.004032 0.001614 0.004653 -0.000291 -0.001922 0.002318 -0.002703 -0.004837 -0.003921 -0.000875 0.000225 -0.003513 -0.001183 -0.002808 -0.004533 -0.004914 -0.000428 0.004175 -0.002445 0.004867 0.004126 0.000230 0.003520 0.002236 0.000759 -0.001986 0.002894 -0.003901 
ÿ 0.000255 0.002682 -0.002294 -0.002138 -0.004108 0.001892 0.002489 0.001432 0.003454 -0.004201 0.004275 0.003215 0.001221 -0.002941 0.002593 0.002117 -0.000026 0.000829 -0.000524 -0.000456 0.002995 0.004766 -0.000545 -0.000597 -0.003936 -0.000976 -0.000440 -0.001900 -0.002536 -0.003739 -0.000676 0.004541 -0.002026 0.001633 0.000777 0.000133 0.000878 0.002795 -0.001549 -0.001219 0.001955 -0.000095 -0.000623 -0.003108 -0.000513 -0.004381 0.003086 0.003372 0.004256 -0.004908 0.001610 -0.000373 -0.000458 -0.004019 -0.000521 -0.000435 0.001127 -0.001557 0.003725 -0.000410 -0.002707 -0.004867 0.003880 -0.001391 -0.001181 0.001208 0.001974 -0.001972 -0.001012 0.004324 0.002538 0.001754 0.003581 0.004637 0.002605 -0.003806 0.000879 0.004803 0.001705 0.000252 0.001663 -0.000020 0.001869 -0.004665 -0.000785 -0.002178 -0.002371 -0.004649 -0.000684 -0.001513 -0.003985 -0.003296 0.000247 0.004630 -0.003439 -0.001699 0.002789 0.001408 0.001295 0.001549 
0.001335 -0.000187 -0.003235 -0.000349 -0.002305 -0.002208 -0.002573 0.004021 0.002542 -0.004219 0.004154 0.004417 -0.000843 0.001436 0.001476 0.004745 0.003320 0.004913 -0.003574 0.001411 0.003313 -0.001132 -0.001467 0.003321 -0.000082 -0.001541 -0.000170 0.001881 -0.003585 0.001340 0.004848 0.000998 -0.001414 -0.002331 0.000618 -0.002923 0.004712 0.000101 -0.003330 -0.000974 -0.004426 0.003793 -0.004962 -0.001750 0.004454 -0.003599 0.000251 -0.001344 -0.002867 -0.001918 -0.000659 -0.003350 0.001892 0.001490 0.001839 0.001138 -0.000488 0.001784 -0.000224 0.003526 0.003275 -0.003381 -0.002315 -0.002279 -0.001038 -0.003849 0.002595 0.000129 0.004854 0.003036 0.004039 -0.000344 0.001732 0.002431 0.004046 -0.002292 0.002877 0.001992 -0.002850 -0.001808 0.004072 0.001876 0.000381 -0.002486 0.003596 0.004738 0.003270 0.004580 0.002232 -0.004266 -0.002152 0.000797 0.003261 0.002522 -0.001353 0.000070 0.002463 -0.004743 0.002698 -0.001194 
Univeristy. -0.001880 -0.003405 -0.000468 -0.004089 0.001014 0.001694 0.001180 0.002791 0.004425 -0.001792 0.002175 0.003354 0.004135 -0.003705 -0.000454 0.004004 -0.001575 -0.001390 0.002825 0.003648 -0.001923 0.000309 0.004044 0.003692 -0.003629 -0.000950 -0.002266 -0.001956 -0.000911 0.004988 0.000925 0.003108 0.004512 0.000780 0.003150 -0.002209 0.003421 0.001581 -0.003561 0.003499 -0.000902 -0.004951 -0.004676 0.004140 -0.002676 0.001339 -0.003164 -0.003882 -0.003620 0.003107 0.000506 -0.001660 -0.002953 -0.004490 -0.001635 0.002213 0.002606 -0.003796 0.004946 0.001642 -0.001160 -0.004655 -0.002722 0.003034 0.004028 -0.004410 0.004893 -0.004704 -0.001047 0.002094 -0.000177 -0.000168 -0.003104 0.002515 -0.003402 0.000551 0.003637 -0.002993 0.002251 0.003857 -0.002541 -0.001771 -0.003689 -0.001342 -0.000859 0.001335 0.000812 -0.003642 0.001967 0.003982 0.000282 0.000866 0.001716 -0.003674 0.001755 -0.001414 -0.003330 0.001024 0.004761 -0.001574 
-0.000663 -0.001372 0.002946 0.002445 0.000141 -0.004067 -0.004839 0.001064 0.003025 0.004967 0.000784 -0.003823 -0.001230 0.000886 0.001847 -0.000810 0.000658 0.001345 0.002880 0.004010 0.004470 -0.003498 0.000915 -0.002957 -0.001514 -0.000988 -0.004516 -0.002805 0.003490 0.004033 -0.001383 -0.004128 0.002760 -0.000781 0.004845 -0.003018 0.002080 0.004727 0.001201 -0.003072 -0.000271 0.003214 -0.002785 0.004619 -0.003510 -0.000164 0.004918 0.001461 -0.004357 0.002249 -0.001158 0.001359 0.002971 0.000609 -0.003982 0.000720 -0.003247 -0.002428 -0.004023 -0.001550 -0.002228 -0.001705 0.000751 -0.004044 -0.000692 0.000435 0.004870 -0.002857 -0.002857 0.004146 -0.004634 -0.001582 -0.000442 0.002086 0.001770 -0.001313 -0.002665 -0.000589 -0.003886 -0.000644 0.003754 0.003777 0.002929 0.004333 0.004597 -0.004660 -0.000755 0.000022 -0.001855 -0.003243 0.004595 -0.004670 -0.004821 0.003183 0.001009 0.001664 -0.001019 0.002275 0.003019 0.002929 
studying -0.004668 0.004190 -0.002344 -0.004468 0.002512 0.001583 0.004451 -0.001621 0.001304 -0.000389 -0.004564 0.002877 0.004989 -0.004070 -0.004859 0.002931 -0.000652 0.000696 0.000598 0.004948 0.002661 -0.003434 0.001338 -0.002165 -0.004289 -0.001304 -0.000607 0.002997 0.001779 0.004741 -0.000706 0.004340 -0.003355 0.004859 -0.001929 -0.001729 -0.001409 0.001705 -0.004743 0.003697 -0.001601 0.000436 0.002882 0.002022 -0.000650 -0.001292 -0.004522 -0.002845 -0.002776 -0.003322 0.000076 -0.004500 0.000303 -0.002999 -0.003793 -0.004035 -0.000632 0.004833 -0.004098 -0.000045 -0.002298 -0.002168 0.003693 0.001376 0.001084 -0.003847 -0.003389 -0.003365 -0.002204 0.002452 0.004187 0.004639 -0.001381 0.001887 -0.001547 -0.003207 -0.003165 0.002112 0.003940 -0.002997 -0.001775 0.003284 -0.002322 0.001677 0.001069 -0.001940 -0.000800 -0.000280 -0.003849 0.001596 0.000536 0.002538 -0.003251 0.001548 -0.003783 0.004037 -0.001353 -0.001928 0.003276 0.000625 
0.000748 0.003937 0.001988 0.002125 -0.001974 0.001975 -0.000963 0.002648 0.003479 -0.004040 -0.000662 0.002634 -0.004614 -0.001451 0.002422 0.000989 0.004530 0.004897 0.000321 -0.000880 0.004191 0.002661 -0.002435 0.000932 0.000151 0.001998 0.001186 0.002832 0.000691 -0.004437 0.000716 0.003726 -0.003407 -0.001487 -0.001815 -0.004980 0.001137 -0.001497 -0.001876 0.000622 0.000105 -0.004308 -0.002434 -0.003064 0.001777 0.002733 -0.003960 0.002869 -0.003063 0.004785 -0.004420 -0.000172 -0.001136 -0.000498 0.000715 0.001718 0.003339 -0.002958 -0.001524 0.004946 -0.001355 0.000060 -0.001604 -0.001582 -0.004438 0.003713 0.002506 0.003541 -0.002628 -0.004343 -0.004664 0.004220 -0.000145 -0.003952 0.003918 -0.003138 0.001294 -0.002457 -0.002216 0.000374 0.002469 -0.004703 -0.001037 -0.003839 -0.003338 -0.003032 0.001989 -0.001871 -0.000347 0.002711 0.003891 0.002685 -0.000276 -0.004818 0.004202 -0.001264 -0.002343 -0.000462 0.004952 -0.002314 
of -0.003268 0.003435 0.000673 0.003444 0.002731 -0.002971 -0.001604 0.002414 0.003936 0.002977 -0.002348 0.003504 0.001126 -0.003565 0.000472 -0.001881 -0.002416 -0.004941 0.001388 0.000165 -0.000909 -0.000995 -0.002569 -0.003951 0.003928 0.000929 -0.001867 0.004678 0.002877 -0.004012 -0.004476 -0.002543 -0.000782 0.001838 0.004135 -0.001707 -0.001268 -0.001364 0.000998 0.003591 -0.000298 -0.000963 -0.004355 0.002259 0.002908 -0.001802 0.000106 -0.004298 0.001632 0.003774 -0.001087 -0.002174 0.001655 -0.004077 -0.000903 -0.004961 0.001257 -0.002699 0.000188 -0.003755 0.001221 0.003063 0.004220 0.002852 0.004828 0.000867 -0.004278 -0.001234 -0.002142 0.000867 0.001726 0.000393 -0.001406 -0.004279 0.001763 -0.003362 -0.002184 0.000585 -0.002135 -0.001090 -0.001195 0.003115 0.004562 0.001112 -0.002657 0.003467 -0.001113 -0.000347 0.001712 0.004298 0.000369 0.003438 0.002691 0.000764 0.001041 0.003873 0.003563 0.000520 -0.004566 0.004865 
-0.004590 -0.001290 -0.002514 0.000408 -0.001305 -0.003614 0.000150 -0.002008 -0.001254 -0.003271 -0.001590 0.000507 0.001347 -0.000107 -0.000703 0.004360 0.004778 -0.001464 0.002342 -0.001543 -0.000180 -0.002186 -0.000424 0.004205 -0.000245 -0.004617 -0.004469 -0.004491 0.000363 0.001400 -0.002761 -0.001223 -0.000073 -0.001481 0.004229 0.002913 -0.000773 0.001899 -0.001466 -0.000675 0.001544 -0.000806 0.004684 0.001918 0.002661 0.000562 -0.000288 -0.002901 0.000857 -0.001342 0.003147 0.003775 -0.003085 -0.001360 -0.002977 0.003351 0.004115 -0.001838 -0.004132 -0.000267 -0.001761 -0.002619 -0.003284 -0.000672 -0.002431 -0.001046 -0.000903 0.001043 0.002884 -0.001964 -0.004957 -0.003717 -0.002533 0.002285 -0.000916 -0.001046 -0.002901 0.001856 -0.001748 -0.004536 0.000061 -0.000594 0.002078 0.004717 -0.002865 0.000090 0.002594 -0.001879 0.001600 0.001565 0.004330 -0.000418 -0.000760 0.003987 0.004319 -0.004495 -0.001665 0.000013 0.002090 0.004798 
Computer -0.000334 0.004799 -0.000324 -0.001134 -0.003485 -0.003999 0.001608 0.001615 0.004663 0.003775 0.004917 -0.000547 0.002390 0.000778 -0.000866 0.001284 0.000479 0.002165 -0.003710 -0.001483 0.002211 -0.004407 0.000917 -0.004945 0.003366 0.001219 0.000046 -0.002693 0.002227 0.001698 0.003208 0.004178 -0.000426 0.002187 0.002435 -0.002926 -0.001312 0.000342 0.002258 -0.000099 -0.004649 -0.003681 -0.000293 -0.000933 -0.002156 0.002775 0.004314 0.003477 -0.003051 0.004865 -0.001889 0.004537 -0.004054 0.000247 -0.004371 -0.003846 0.000617 -0.000925 0.003899 0.004734 -0.000757 0.004008 0.002452 -0.000818 0.002606 0.000200 0.003319 0.000907 0.003986 -0.004692 0.001032 0.003813 -0.000835 -0.000512 0.002622 0.004306 -0.003577 -0.004603 -0.002380 0.001294 -0.003456 -0.001810 -0.001942 -0.003817 0.002807 -0.004475 -0.001534 0.002878 0.000993 -0.002443 -0.004124 -0.002215 -0.000615 -0.003058 -0.000180 -0.000188 -0.001237 -0.001163 0.002328 0.000365 
-0.004332 -0.001586 -0.004468 0.001513 0.001990 0.002135 0.002093 -0.001186 -0.003827 -0.002259 -0.000907 -0.000985 0.001498 0.002888 0.001064 -0.003978 0.003747 -0.002267 -0.004964 -0.003758 0.001201 0.004930 0.000542 -0.001418 0.004642 -0.000362 -0.000387 0.004447 -0.002650 -0.000488 -0.003221 -0.002257 -0.004893 0.004708 -0.000928 0.004878 -0.003806 -0.002118 -0.003977 0.004756 0.001392 0.004191 -0.000336 -0.001215 0.003983 0.001292 0.004526 0.000871 -0.000252 -0.000661 -0.002361 -0.002581 -0.003032 0.000990 -0.001464 -0.002663 -0.003576 0.001401 -0.000753 0.002030 0.001398 -0.001772 0.004303 -0.004596 -0.002330 0.001627 0.000737 0.003867 0.003523 0.004254 -0.001921 -0.003676 -0.000263 0.001266 -0.001640 0.004181 -0.000406 0.000320 -0.003887 0.001344 -0.001126 0.001570 -0.001633 0.004221 -0.004140 -0.002325 0.004654 0.001717 0.001331 0.003788 -0.002995 -0.004762 -0.001429 -0.002432 -0.000047 -0.001310 0.003359 -0.000829 0.000527 -0.001519 
a 0.003977 0.001251 -0.001740 0.003516 0.001207 -0.001033 -0.004818 -0.004799 -0.001671 -0.000027 -0.004176 -0.002557 0.001125 0.004427 -0.002781 -0.003352 -0.002124 0.004984 -0.001103 0.001721 -0.000636 -0.003199 0.002889 0.004071 -0.001131 -0.002466 0.003727 -0.002398 0.002172 -0.002661 -0.001558 -0.001280 -0.002444 -0.001127 -0.003435 -0.003667 -0.004198 -0.002708 0.000128 0.001847 0.000189 0.000251 0.003661 -0.000833 -0.003499 -0.002092 0.004197 0.004699 0.003018 0.002919 0.001265 -0.002649 0.000521 0.000439 -0.003102 -0.001471 0.002291 -0.001875 -0.004373 0.002138 0.004111 -0.003867 0.004482 0.004585 0.004260 -0.002880 0.002996 0.004776 0.003521 -0.003758 0.003199 0.004117 -0.004825 0.001155 -0.000377 -0.003485 -0.004998 0.002015 -0.000701 -0.001624 0.001284 0.001478 0.001758 -0.001394 0.004803 0.004702 -0.000968 -0.001388 -0.001161 -0.000659 -0.004349 0.002299 -0.000826 -0.004448 -0.001353 -0.003926 0.004090 -0.004008 -0.002448 -0.001157 
-0.003634 0.001018 0.004721 0.002160 0.000256 0.004691 0.000959 -0.000667 -0.004399 0.001967 0.004981 -0.000124 0.003182 -0.001998 -0.001183 -0.004806 -0.003719 0.000454 -0.003001 -0.000807 0.000678 -0.000522 -0.003443 -0.001719 0.004656 -0.002269 -0.002976 0.001363 -0.001005 0.000368 0.000431 -0.000155 -0.003024 -0.004954 0.001308 -0.002367 0.004382 0.001922 -0.003313 0.001135 -0.000508 0.003651 -0.003901 -0.000744 0.003089 -0.004610 0.001576 0.003402 -0.001546 0.004795 -0.002352 -0.002520 0.001367 0.002022 0.001348 -0.002105 0.000110 -0.000272 0.002205 0.003555 -0.004535 0.003068 0.002252 -0.004135 0.000712 -0.000300 -0.003980 -0.001268 0.001633 -0.000222 0.000539 -0.001438 -0.003491 -0.004039 -0.004658 0.004261 -0.003879 0.003403 0.002460 -0.002765 0.003751 -0.000239 -0.003577 0.001391 -0.004820 -0.004809 0.004263 0.003134 -0.001311 0.002350 -0.004489 0.001372 -0.004941 -0.003607 0.002198 -0.002489 -0.002428 0.004978 -0.001143 -0.004544 
in 0.002009 -0.001740 0.002517 0.001613 -0.003349 -0.001105 0.002710 0.004890 0.002279 0.002040 0.001468 -0.003307 0.002174 -0.004648 0.003322 0.000927 0.002119 -0.001015 -0.004697 0.003999 0.000393 -0.004403 -0.003059 0.004815 -0.002221 0.000344 0.000270 0.004781 -0.002442 0.000881 -0.000181 -0.002196 -0.004490 -0.002634 0.002619 0.000290 -0.000083 0.002455 -0.001796 0.001145 0.001561 0.001303 -0.001398 0.001776 0.003722 0.001567 -0.001654 -0.003912 0.002182 0.003404 0.004468 0.000488 -0.004778 -0.000531 -0.003503 0.003882 0.003624 0.004919 -0.003534 -0.002323 0.000668 -0.002590 -0.001095 -0.004222 0.002136 -0.002902 0.000847 0.004592 -0.003691 -0.003361 0.001822 0.003025 0.003968 0.001191 0.003861 0.002484 -0.001605 -0.001592 0.001496 -0.003126 -0.004629 -0.001552 0.001758 0.002602 0.003176 0.003966 0.004178 -0.001425 0.002594 0.000119 0.000787 -0.003803 -0.003097 0.004563 -0.003883 -0.000623 0.001887 -0.002546 -0.002800 0.004519 
0.004847 -0.003008 -0.003854 0.001566 -0.001664 0.002021 -0.004657 -0.003731 -0.000625 0.004874 0.002168 -0.002691 -0.003757 -0.001796 -0.003850 0.003594 -0.000278 -0.002830 -0.000678 -0.003471 0.003095 -0.000574 -0.003785 0.000021 0.002141 -0.004870 0.003860 0.000476 -0.004858 -0.003063 0.001788 -0.003200 0.002879 0.000004 0.002030 0.000399 -0.001366 0.001987 -0.000882 -0.004820 -0.001812 0.003043 0.000083 -0.002451 -0.000178 -0.004174 0.004456 -0.003589 0.004317 -0.004505 0.004269 0.003175 0.004955 -0.000295 0.004052 0.001745 -0.002483 -0.001389 0.000837 -0.001472 0.000283 0.004872 0.004156 0.002430 0.004036 0.003642 -0.003961 0.004857 0.002057 0.002578 0.001017 -0.000284 0.000126 0.001837 -0.003877 0.003413 -0.003474 0.004073 0.000887 0.004854 0.002037 0.004445 -0.002660 -0.004555 -0.000060 0.000608 0.000014 -0.000907 -0.003982 0.002718 -0.004060 0.002204 -0.001450 0.003431 0.004649 0.003684 -0.001681 -0.002095 -0.001828 0.004940 
from -0.001395 0.003794 0.001042 -0.000123 -0.004810 0.001255 0.000288 0.004902 -0.003645 0.002946 -0.004558 -0.001079 0.002882 0.004020 -0.001464 0.003341 -0.001949 0.002136 0.004101 0.002067 -0.002356 -0.002551 -0.000833 0.001506 -0.000058 0.002616 0.003267 0.000564 -0.004274 0.002792 -0.001569 0.000648 -0.001722 -0.004365 -0.000809 -0.004337 0.003378 0.001299 0.002578 0.002016 -0.000691 0.002443 -0.001877 -0.001386 -0.003149 0.004221 -0.002142 -0.003139 -0.000714 0.004290 -0.003687 0.000666 0.002395 0.002806 0.000520 -0.003567 0.004458 0.002426 0.000010 0.003069 -0.003742 -0.001695 -0.003185 0.001981 0.001076 -0.001899 -0.004534 -0.002926 0.004692 0.001968 0.002993 0.004756 -0.004612 0.002565 -0.001071 0.003931 0.003946 -0.004954 -0.004696 -0.003993 0.003646 -0.002932 -0.003350 0.004889 0.000271 -0.001213 -0.000003 -0.003015 0.002100 0.002860 0.004878 0.001199 -0.000085 0.004443 0.003324 -0.001061 -0.003002 0.001191 -0.000135 0.004110 
0.000955 -0.000697 0.003401 0.001451 0.003575 0.004597 -0.003661 -0.001161 0.002338 0.004431 -0.000753 -0.001966 0.003024 -0.001037 -0.000842 -0.004558 0.003916 0.000848 -0.004399 -0.000031 -0.004206 -0.004756 0.000609 0.003021 0.001940 -0.000195 -0.001287 -0.001495 -0.001866 0.004688 -0.003057 0.002827 0.002659 0.002550 0.004832 0.004893 -0.003705 -0.001453 0.004410 -0.003891 0.002323 0.000334 0.000209 0.000382 -0.003475 -0.001931 -0.000740 0.004118 -0.002817 0.004408 0.001094 -0.003777 -0.004924 0.004506 -0.002257 -0.001896 0.003488 -0.003979 0.003737 0.003666 -0.001802 -0.000893 -0.003892 -0.000684 -0.002512 -0.003578 0.004388 0.003960 0.002139 0.003122 0.000607 -0.000995 -0.004566 -0.003137 -0.000704 -0.001644 0.003151 -0.002199 -0.002512 -0.001580 0.003574 -0.001407 0.004712 -0.001897 -0.002516 0.004394 0.003002 -0.001188 -0.001839 0.002861 -0.003114 0.004452 0.001386 0.004151 0.003398 0.001430 -0.004558 0.000919 0.002068 -0.001347 
Department 0.001109 -0.001678 0.004928 -0.002475 0.001669 0.004016 -0.003492 0.001955 0.002902 -0.001843 0.003840 -0.001653 0.003091 0.003402 -0.003544 -0.004392 0.003016 0.004907 -0.003615 -0.004855 -0.004042 0.000327 -0.001839 0.000863 -0.002300 -0.000180 -0.001187 -0.000830 -0.003479 -0.003959 -0.002126 -0.001030 0.003204 0.004147 -0.002626 0.001671 0.001029 0.001794 0.001845 0.001178 -0.004222 -0.000861 -0.001682 0.003899 -0.004267 -0.001163 -0.003676 -0.001262 0.001673 -0.003956 -0.002106 -0.002897 -0.003119 -0.001582 -0.002440 0.002899 -0.002862 -0.003886 0.002353 0.002534 0.000725 0.001788 0.001805 0.004912 -0.001576 0.000598 -0.002055 0.001441 0.003515 0.000198 -0.004693 -0.003973 0.001779 0.000745 0.000920 -0.004925 0.001499 0.004896 0.004317 -0.002507 0.003455 -0.002193 -0.002472 0.004686 0.000929 -0.002866 -0.004915 0.000561 -0.000298 0.003033 0.004018 0.001523 -0.001946 -0.001840 0.003860 -0.003520 -0.003232 -0.002327 -0.003358 -0.003163 
-0.002967 0.003421 0.002580 -0.003968 -0.004184 -0.004615 -0.002460 -0.001237 0.001834 0.001108 -0.002687 0.001268 -0.001629 -0.001753 -0.003568 -0.002545 0.001206 -0.003041 0.001929 0.003730 -0.001379 -0.000101 0.003333 -0.001001 0.001397 0.002224 0.002677 0.004669 0.002816 0.001589 0.004491 0.004645 -0.001341 -0.001848 -0.004192 -0.004666 -0.002793 0.004569 -0.003842 -0.004358 -0.000759 -0.004005 -0.002428 -0.003024 -0.001957 0.000088 0.004582 0.003241 -0.000606 -0.002997 0.004219 0.000844 0.001575 -0.000604 -0.003986 -0.001308 -0.004633 0.002424 0.001998 -0.001811 0.004052 0.003743 -0.003297 0.003244 0.003410 0.003509 -0.002840 0.000261 0.001724 0.004379 0.002901 -0.001853 -0.000226 0.001508 -0.004044 -0.001691 0.000841 0.002554 0.000856 0.004652 0.000708 -0.002328 0.004634 0.003584 -0.002346 -0.000482 -0.003181 0.004009 0.002462 0.003249 -0.000556 -0.002665 -0.001588 -0.003479 -0.002960 -0.002533 0.001286 -0.000510 -0.003362 0.000813 
computer -0.000635 0.004813 -0.002231 -0.003723 0.003431 -0.002354 0.002464 -0.004733 -0.003236 -0.004355 -0.004744 0.001689 -0.004854 -0.001035 0.003174 0.001948 -0.003142 0.000265 -0.004250 0.004951 0.002681 0.004699 -0.004984 0.002105 -0.004103 -0.000076 -0.004498 -0.002684 0.002287 -0.003903 0.004241 -0.003011 0.000132 -0.004127 0.000762 0.000032 0.000213 0.004409 -0.002902 -0.002150 -0.004188 -0.000640 -0.002220 0.004350 0.002710 0.000884 -0.000161 -0.004063 -0.000813 0.001637 0.002806 0.001519 -0.003974 -0.003226 -0.001288 0.002501 -0.003492 0.003953 0.002089 0.002790 -0.003587 0.003328 -0.000032 -0.001209 0.004024 -0.002443 0.001880 -0.000588 0.000120 0.001796 -0.000143 -0.003942 -0.002015 0.003701 -0.001571 0.002636 0.003398 0.003428 0.004629 -0.004449 0.004641 0.003634 -0.002014 0.003711 0.002496 -0.000526 0.000533 -0.001479 0.000243 -0.001394 -0.003199 0.003888 0.003664 0.001185 0.003821 -0.003782 0.001040 -0.000133 0.001124 0.004417 
-0.002074 -0.002686 0.002277 0.002030 -0.002598 -0.000146 -0.004961 0.000258 -0.002292 -0.002128 -0.000041 -0.001269 -0.000375 -0.003475 -0.000932 -0.001147 -0.003566 0.003469 -0.003101 0.004533 0.003918 -0.001140 0.000481 0.002175 0.000357 -0.004645 -0.000654 0.000686 -0.003468 -0.001890 -0.004474 0.001473 -0.004276 0.004780 0.003551 -0.001559 0.003715 -0.004477 0.000454 -0.002002 -0.001213 0.002994 -0.004235 -0.000952 0.001720 0.002350 0.001515 0.002999 -0.004205 0.001248 0.002236 0.003756 -0.003206 -0.000158 0.004958 -0.002273 0.002998 0.000790 -0.000786 0.003816 -0.004811 -0.000753 -0.002965 0.003431 -0.003353 0.002871 0.002951 0.000478 0.003154 0.001817 0.003994 0.001362 0.002991 -0.001259 -0.000305 0.004991 -0.003061 -0.001199 0.002086 0.002769 -0.001720 -0.000349 -0.004303 -0.001395 0.002795 0.001448 -0.002439 -0.001096 -0.001235 -0.003151 -0.002793 0.002571 -0.003029 0.001010 -0.003331 0.001014 0.000695 0.001587 0.000475 -0.001861 
the -0.004283 -0.001264 -0.004341 0.000351 0.000320 -0.004886 0.001751 -0.003442 -0.004716 -0.004124 0.000782 -0.001835 0.003891 -0.001321 -0.002716 -0.000921 0.001921 0.003680 -0.001712 -0.004295 -0.002344 0.003534 0.003326 -0.003049 0.001878 0.003398 0.004427 0.004222 -0.002132 0.000928 -0.003875 0.001425 0.001406 -0.003720 -0.004551 0.004966 0.000774 0.002111 0.001932 0.003750 -0.003246 0.003576 -0.002396 -0.000815 0.002626 -0.001667 -0.003004 -0.004823 0.004172 -0.003464 -0.002859 -0.001868 -0.000327 0.000844 -0.002431 -0.003044 -0.000090 -0.003589 0.000311 0.003055 -0.001835 0.000894 -0.000101 0.000336 0.000219 0.004449 0.003364 -0.004795 0.004353 -0.000267 0.000237 -0.003432 0.001348 0.001901 0.002550 -0.004169 0.004486 -0.001389 0.004833 -0.003099 -0.000452 0.000018 0.004118 -0.003816 0.004815 -0.001222 -0.000063 0.002586 0.001068 0.000048 0.004320 -0.002487 0.001588 0.001484 0.001799 0.004872 0.002158 0.003243 -0.000596 0.001069 
0.000977 0.001452 0.003585 -0.001337 0.003178 -0.004026 -0.002569 0.000045 0.002302 0.000193 0.003279 0.004641 -0.003369 -0.003234 0.000660 0.001355 -0.003053 0.000849 0.001605 0.001595 -0.003470 0.000098 0.000646 -0.000733 0.001162 0.004669 0.004814 0.000776 -0.000876 -0.002782 0.003641 -0.004970 0.001197 0.002902 -0.000844 0.003434 0.000663 -0.000623 -0.004107 -0.000106 0.003303 -0.003200 0.000881 0.000818 -0.002602 -0.002174 0.003653 -0.004890 0.003729 -0.002388 -0.003761 0.004178 -0.004422 0.003813 0.003171 0.001928 -0.001275 -0.003412 0.001479 0.004765 0.001453 -0.001410 0.000696 0.001597 0.004542 0.004977 0.002853 0.003829 0.001273 0.003406 0.002480 -0.004632 -0.002571 0.004031 -0.003391 0.002619 0.001289 -0.000490 0.004771 0.004490 0.003636 0.004999 -0.001002 0.002386 -0.002250 -0.001846 0.003820 0.000214 -0.000586 -0.000869 -0.003731 0.004380 -0.003093 0.000587 -0.004123 0.003789 0.001012 -0.002322 0.004674 -0.000150 
