18 100
am -0.005000 0.004003 0.004419 -0.003830 -0.003278 0.001367 0.003021 0.000941 0.000211 -0.003604 0.002218 -0.004356 0.001250 -0.000751 -0.000957 -0.003316 -0.001882 0.002579 0.003025 0.002969 0.001597 0.001545 -0.003803 -0.004096 0.004970 0.003801 0.003090 -0.000604 0.004016 -0.000495 0.000735 -0.000149 -0.002983 0.001312 -0.001337 -0.003825 0.004754 0.004379 -0.001095 -0.000226 0.000509 -0.003638 -0.004007 0.004555 0.000063 -0.002582 -0.003042 -0.003076 0.001697 0.000201 0.001331 -0.004214 -0.003808 -0.000130 0.001144 0.002550 -0.003170 0.004080 0.000927 0.001120 -0.000608 0.002986 -0.002288 -0.002097 0.002158 -0.000753 0.001031 0.001805 -0.004089 -0.001983 0.002914 0.004232 0.003932 -0.003047 -0.002108 -0.000909 0.002001 -0.003788 0.002998 0.002788 -0.001599 -0.001552 -0.002238 0.004229 0.003912 -0.001180 0.004215 0.004820 0.001815 0.004983 -0.003111 -0.001532 -0.002107 -0.002907 0.002815 0.001579 0.000425 -0.002194 0.001524 0.003059 
-0.001127 -0.004434 -0.003260 0.003485 0.001005 -0.002363 -0.001592 0.002495 -0.003533 -0.002313 0.004734 0.004248 -0.003959 0.000871 -0.002250 0.000152 0.003007 0.004846 0.001987 0.004113 0.003147 -0.000231 0.004475 0.002536 0.004741 -0.001705 0.004747 0.004329 -0.001427 -0.004420 0.004833 0.000897 -0.002079 -0.000718 -0.000736 -0.003853 -0.001431 -0.000444 -0.004927 -0.003516 -0.001203 -0.000941 0.001790 0.000816 -0.000614 0.002946 0.001446 0.000548 0.003617 -0.001125 -0.001427 -0.000414 -0.002728 -0.003000 0.000202 0.004338 -0.001367 -0.000021 -0.004135 0.003709 -0.001520 0.002968 -0.002409 -0.000895 0.000094 0.003623 -0.000086 0.004433 -0.000743 0.002100 -0.000137 -0.003902 0.004251 0.001056 -0.003029 0.003008 -0.004145 -0.004354 0.003268 -0.003432 -0.002648 0.003528 0.003285 0.000685 0.004523 0.004857 0.004055 0.001765 -0.004350 0.002289 -0.004892 -0.001286 0.001512 0.000981 -0.001525 0.002938 -0.004608 -0.001411 -0.001312 -0.001656 
</s> 0.002382 -0.004335 0.004441 0.001183 0.002487 0.002144 -0.000919 0.000439 -0.004397 0.001159 0.003021 -0.001358 0.004169 -0.001447 -0.002844 -0.003690 0.005055 0.004351 -0.003199 0.005637 -0.004286 -0.005633 0.002819 -0.001633 -0.002066 -0.000085 -0.004487 0.003010 0.004252 0.005520 -0.004277 -0.003673 0.000204 0.000026 0.003811 0.001775 0.004509 -0.003263 0.001837 0.004828 -0.002243 0.001939 0.000133 -0.002195 0.003652 0.006346 -0.002916 0.001127 -0.002209 0.001490 -0.003331 0.004591 0.000136 -0.000821 -0.001404 -0.003868 -0.004959 -0.002837 0.003160 -0.003193 -0.005100 -0.000158 0.001173 0.002027 0.000355 0.004860 0.002987 -0.000909 0.000095 0.000539 0.000672 0.003478 0.004741 -0.000655 -0.002911 -0.001301 -0.003270 0.002151 -0.005672 -0.001061 -0.003378 0.002793 0.005154 -0.002194 -0.004310 0.001971 0.000527 -0.003106 0.000667 -0.001425 -0.000575 -0.003937 -0.000858 -0.002871 0.002740 0.003216 0.002874 -0.001059 -0.000484 0.000667 
-0.001357 0.002048 0.003517 -0.003788 0.001000 0.003601 0.003769 -0.004124 0.002780 -0.002648 -0.001477 0.001252 0.002266 -0.004044 -0.002690 0.001248 0.000238 0.004570 0.002162 -0.002731 -0.000023 0.000850 -0.002391 0.003222 -0.002735 0.004952 0.000683 -0.004488 0.000383 -0.000468 0.000916 0.003047 0.000113 -0.000252 0.000338 -0.002768 -0.000265 0.003254 0.003481 0.001974 -0.004969 0.000208 -0.002625 0.003679 0.004282 0.003265 0.001553 0.001253 -0.001730 -0.002418 -0.001954 -0.003898 0.000275 0.000815 0.001384 0.002133 -0.003921 0.003121 -0.001402 -0.004248 0.003963 -0.002845 -0.000778 -0.004135 0.004708 -0.001927 -0.004716 0.003878 0.001596 0.003533 0.001318 0.003698 0.000407 0.003690 0.004353 0.001731 -0.000576 0.001200 0.003921 -0.003117 -0.000573 0.001220 0.002054 0.000560 0.003698 0.001406 0.003283 -0.003331 -0.001983 0.001915 0.004639 0.001616 0.000667 -0.004598 -0.004348 0.004307 0.002428 -0.002977 -0.001644 -0.003852 
I -0.002843 0.004372 -0.004630 0.000580 -0.001544 -0.002407 -0.000485 -0.005134 -0.001600 -0.001730 0.002759 -0.001662 0.002620 -0.004744 0.004020 0.002033 0.001026 0.001857 0.004268 -0.003592 0.001769 0.001883 -0.000011 0.003697 -0.000231 0.004853 0.002093 -0.001847 0.003093 -0.004101 -0.000374 0.004533 0.005486 -0.003062 0.000976 0.004529 -0.001204 0.001972 0.003857 0.004222 -0.000823 -0.002137 0.004223 -0.005981 0.001030 0.000980 0.003650 -0.005023 0.000501 0.003463 0.001649 0.002488 0.000771 0.000248 0.001120 0.000169 0.004192 0.004683 0.002907 -0.002808 -0.001101 -0.003124 -0.001453 -0.000453 -0.003856 -0.002485 0.003898 0.002739 -0.004806 -0.001948 0.004278 0.000302 0.004783 -0.000872 0.000576 -0.003585 0.003004 -0.005284 0.003088 -0.001666 0.001115 -0.003261 -0.002353 0.002828 0.003337 0.004042 0.000869 0.002129 -0.000283 0.003721 0.004800 0.004182 0.005807 -0.001704 -0.003953 -0.002442 0.001632 -0.000169 0.004201 -0.002328 
0.002915 0.004242 -0.002001 0.003792 -0.004972 0.004184 -0.002384 -0.000734 -0.004842 0.003042 0.004079 -0.004078 -0.000914 0.000972 0.004419 0.000166 -0.004905 0.000631 -0.001833 0.000904 0.003966 -0.002825 -0.002645 -0.000458 -0.001022 -0.001741 -0.003487 -0.000013 -0.004085 0.004041 0.002673 -0.001355 0.003057 -0.002823 -0.004633 0.004422 0.001185 0.002822 -0.003375 -0.001276 0.003580 -0.001367 0.000978 -0.004542 -0.003975 0.004766 -0.004541 0.001030 -0.003201 0.003878 -0.000402 0.004346 -0.003315 0.001125 -0.004574 -0.003188 -0.001036 0.004163 -0.002525 0.002336 -0.000584 0.003148 0.002776 -0.002679 -0.003677 0.000736 0.000860 0.000677 0.000467 0.002084 0.003758 0.003807 -0.004872 0.004849 -0.003997 0.000619 -0.003912 -0.000815 0.004624 -0.002481 0.001629 -0.002250 -0.000847 0.003413 0.002530 -0.004300 0.001622 -0.000292 0.002074 0.000691 -0.003438 0.000309 -0.003958 0.002879 0.001003 0.001623 0.002715 0.004921 0.004478 0.002556 
student 0.003175 0.001983 -0.001705 0.004212 -0.000151 0.001043 -0.000921 0.001249 -0.000168 0.003925 0.001429 -0.000347 -0.000671 0.002236 -0.002943 -0.001284 0.001991 0.000900 -0.003637 -0.001724 -0.001605 -0.002063 0.004200 0.004160 -0.004836 0.003587 -0.002327 0.001367 0.002549 -0.000390 -0.003832 0.000258 -0.001099 0.003121 0.002263 0.001306 -0.003005 -0.001002 0.000809 -0.002158 -0.004388 -0.000620 -0.002021 -0.002633 0.000350 -0.002130 0.002543 -0.002105 0.003754 -0.003854 -0.001215 0.002689 -0.002495 -0.004677 -0.001090 0.003395 -0.001319 0.004400 0.001584 -0.003448 0.005378 -0.005321 -0.004120 0.003623 -0.003148 0.003574 0.004533 0.003038 -0.001930 -0.002784 -0.000103 0.000017 -0.004377 -0.003354 0.001436 0.000022 0.005290 0.002677 -0.003518 0.004657 -0.001654 0.003208 -0.000645 0.002042 0.000846 0.004677 0.002075 -0.002279 0.004728 -0.004372 0.005039 -0.001771 0.001339 0.001556 0.003589 0.002234 -0.000817 -0.005256 0.003856 0.000806 
0.003061 -0.000665 -0.004300 0.000434 0.002781 0.001011 0.003698 0.003640 0.000829 -0.004576 0.002350 -0.001887 -0.000059 0.005308 -0.001404 0.004628 -0.001279 -0.002516 -0.002931 -0.003025 0.006186 0.003209 -0.004014 0.001998 -0.001584 -0.000297 0.003474 -0.003891 -0.000396 -0.004518 0.000078 0.005061 -0.000496 -0.002209 -0.000715 0.002665 0.002178 0.001492 -0.002207 -0.003067 0.002482 0.005049 0.004083 -0.004307 -0.001895 -0.005765 0.002298 -0.002984 0.001682 0.001794 -0.000438 -0.001308 -0.003141 0.002028 -0.002229 0.001058 0.004080 0.003766 0.002873 0.003327 0.000453 0.000293 -0.003638 -0.000444 -0.003638 -0.002189 0.000657 -0.001094 -0.004493 0.001074 -0.000150 -0.003158 -0.004411 -0.005338 0.003588 -0.000072 0.001640 -0.002654 0.005036 -0.003956 -0.001402 -0.001250 -0.000157 0.004564 0.000554 -0.001324 0.001297 0.004280 -0.005219 -0.000730 0.002521 0.004548 0.002946 0.002963 0.003069 0.001896 -0.002704 -0.000614 0.003536 0.001794 
Tsinghua 0.002607 0.000556 0.000388 0.003214 0.003271 -0.004526 0.000834 -0.001564 -0.004270 -0.000561 0.004133 -0.000879 0.004092 0.005049 0.000084 0.005089 -0.001009 0.000951 -0.002537 0.000681 -0.000466 -0.004466 -0.001432 0.001631 -0.002579 0.004660 -0.001739 -0.001925 0.003357 -0.001448 0.001471 0.000907 0.001382 0.001858 0.000433 0.005110 0.002814 -0.002726 -0.003824 0.002638 0.002786 0.003838 0.003889 -0.001322 -0.005205 0.001099 -0.002119 -0.000769 -0.000371 0.002027 0.000840 0.004617 -0.005024 0.001799 0.002397 0.003830 -0.001950 -0.001175 0.000249 0.001089 0.001069 0.000337 -0.002255 0.004599 0.002771 0.002548 -0.001456 0.001085 -0.004580 -0.000586 -0.000102 0.003135 0.003210 -0.002394 0.000306 0.003883 -0.000182 -0.002343 0.003897 0.001680 0.002225 0.003739 0.002128 0.004200 -0.003685 0.000118 -0.004291 0.001830 -0.000927 0.002217 0.001551 0.000047 0.002306 0.004015 0.003042 0.004247 -0.001056 0.004033 0.003464 0.003809 
-0.003532 0.001095 -0.004890 0.004035 -0.004108 0.001724 -0.002091 -0.005437 -0.000531 -0.002757 -0.002891 -0.002438 -0.005096 -0.005506 0.000553 0.002159 -0.001613 -0.005338 0.006257 -0.001457 -0.003074 0.001093 0.003412 -0.000905 0.003162 -0.000021 0.005650 -0.002620 0.000609 -0.001565 0.001134 0.000178 0.003360 -0.004767 0.004802 -0.003426 -0.003796 0.004046 0.004314 -0.005428 0.000895 0.001458 -0.000442 -0.006349 0.002642 -0.004528 0.003970 -0.002796 -0.002481 0.005328 -0.003061 -0.003511 0.002500 -0.003388 0.000268 -0.003466 0.004704 0.005474 0.000342 -0.002047 0.002533 0.004298 0.001320 0.001776 0.002108 -0.005419 0.000645 -0.003807 -0.001582 0.004299 -0.000539 0.000859 0.001795 -0.003280 -0.000626 -0.000367 0.001235 -0.005485 0.002462 -0.000008 -0.001588 0.001160 -0.004709 -0.003107 0.001684 0.002864 0.003862 0.000168 -0.002467 -0.000290 0.004085 0.004578 -0.001129 0.001795 0.001799 0.003091 0.005589 0.004485 0.004000 0.000892 
Science. -0.004314 -0.003474 0.001077 0.002107 -0.002095 0.003177 -0.003027 -0.002976 0.002362 -0.001412 0.002684 -0.003283 0.002335 0.000415 0.002741 -0.004908 0.003608 -0.001186 0.004175 -0.001446 0.004461 -0.003558 -0.003483 -0.003989 -0.004325 -0.001546 0.001798 -0.001132 0.000531 0.002507 0.004550 0.001032 0.004812 -0.001242 0.001804 -0.001092 -0.003203 -0.000138 0.003091 0.001404 -0.002731 0.000976 0.000443 -0.000075 -0.000492 -0.000244 -0.001610 -0.001622 -0.000704 -0.003642 0.003965 0.003169 0.004915 0.003439 -0.003303 0.003203 -0.002856 -0.003846 -0.001381 -0.000111 -0.000733 0.002161 0.004262 -0.002870 -0.002937 0.001614 0.000657 0.001335 -0.001186 -0.002828 -0.002666 0.001409 -0.004699 0.003989 -0.003673 -0.001242 -0.000194 -0.000278 0.002165 -0.002711 -0.001890 0.004527 0.001880 0.003408 -0.001506 0.001061 -0.004997 -0.003979 0.001739 0.004479 0.003566 -0.003466 0.001127 0.002439 0.002099 -0.001146 0.002439 -0.004904 -0.002366 -0.000613 
-0.001320 0.002289 0.001112 0.000340 0.002247 -0.004165 -0.001488 -0.000816 0.004614 0.003453 0.004790 0.000615 0.004060 -0.002201 -0.000524 0.003540 0.001368 0.004030 0.004601 -0.000634 -0.000182 -0.000198 0.004697 0.001999 -0.004808 -0.004728 -0.003206 -0.002156 -0.004228 0.003094 0.000425 -0.004192 0.002337 -0.001573 -0.002379 -0.002702 -0.001830 -0.001074 0.002912 -0.003780 -0.000948 0.004747 0.003330 -0.001021 0.003264 -0.001454 -0.001594 0.004483 0.001588 -0.004520 0.000172 0.004137 -0.002696 0.003206 0.003158 0.001847 -0.003807 0.001878 0.004397 0.004021 -0.003462 0.004154 0.003418 -0.000437 -0.000881 -0.004810 0.002254 -0.000119 -0.002782 0.002642 -0.004564 -0.001119 -0.003384 -0.003334 -0.000005 0.002968 -0.004407 -0.000082 -0.004538 0.001050 0.004932 -0.002444 0.003868 0.004532 -0.002086 -0.002766 -0.000255 -0.002679 0.000319 -0.000891 0.000124 -0.004178 0.000430 -0.004161 0.004537 -0.001057 -0.000973 0.002578 -0.004987 -0.001911 
science -0.000528 -0.002849 -0.004276 -0.003133 -0.002713 -0.000291 0.005379 0.002452 0.000676 0.001306 0.000546 0.003712 0.001553 0.000147 -0.004537 0.000652 0.001569 0.001722 0.004104 -0.002073 -0.002978 -0.002605 0.003865 0.003612 -0.002368 -0.001731 0.004334 0.004292 0.001631 0.000095 -0.003933 0.002429 0.004350 0.002044 0.004265 0.001449 0.000862 0.001798 -0.002447 -0.001801 -0.000340 0.004143 0.004290 0.000493 0.001428 0.003601 -0.004968 0.002019 -0.000956 -0.003110 -0.002564 -0.005024 -0.002418 -0.004627 -0.003557 -0.003787 -0.002013 0.001381 0.001642 0.004768 -0.001510 -0.000563 0.004814 0.001877 0.003197 -0.002514 0.001162 0.000965 -0.001593 -0.004336 -0.000691 -0.001120 0.001385 -0.002472 -0.004838 0.004663 0.004044 -0.002397 0.004184 -0.000452 -0.001966 0.002605 -0.002103 -0.003040 0.000883 0.005126 -0.003850 0.004975 0.001082 0.005040 -0.003923 0.001406 -0.001910 -0.001900 0.001916 -0.003741 0.004785 0.003476 -0.003587 -0.004584 
-0.000603 -0.002977 0.002352 0.004522 -0.004155 -0.000418 -0.002758 0.004801 -0.000314 0.002932 0.003354 0.003136 -0.003299 -0.002770 -0.002283 -0.004065 -0.004829 -0.004869 -0.000136 0.002102 -0.004123 0.001791 0.001825 0.003045 0.002101 0.004868 -0.001868 0.002670 -0.000376 0.004517 -0.004185 -0.002617 -0.003274 0.003395 0.004407 -0.003911 0.004190 -0.003343 -0.004061 0.000196 -0.004703 0.001960 0.004941 0.003610 -0.004173 -0.000539 -0.001555 0.002737 0.004063 0.001815 -0.004018 -0.003518 0.000784 0.004179 -0.000416 -0.003747 -0.000726 0.004209 0.003781 -0.004044 -0.004688 0.002061 -0.004395 0.001997 -0.002820 0.000392 0.004588 0.003282 -0.004340 0.004357 0.002760 0.001217 0.004032 0.001614 0.004653 -0.000291 -0.001922 0.002318 -0.002703 -0.004837 -0.003921 -0.000875 0.000225 -0.003513 -0.001183 -0.002808 -0.004533 -0.004914 -0.000428 0.004175 -0.002445 0.004867 0.004126 0.000230 0.003520 0.002236 0.000759 -0.001986 0.002894 -0.003901 
ÿ 0.000255 0.002682 -0.002294 -0.002138 -0.004108 0.001892 0.002489 0.001432 0.003454 -0.004201 0.004275 0.003215 0.001221 -0.002941 0.002593 0.002117 -0.000026 0.000829 -0.000524 -0.000456 0.002995 0.004766 -0.000545 -0.000597 -0.003936 -0.000976 -0.000440 -0.001900 -0.002536 -0.003739 -0.000676 0.004541 -0.002026 0.001633 0.000777 0.000133 0.000878 0.002795 -0.001549 -0.001219 0.001955 -0.000095 -0.000623 -0.003108 -0.000513 -0.004381 0.003086 0.003372 0.004256 -0.004908 0.001610 -0.000373 -0.000458 -0.004019 -0.000521 -0.000435 0.001127 -0.001557 0.003725 -0.000410 -0.002707 -0.004867 0.003880 -0.001391 -0.001181 0.001208 0.001974 -0.001972 -0.001012 0.004324 0.002538 0.001754 0.003581 0.004637 0.002605 -0.003806 0.000879 0.004803 0.001705 0.000252 0.001663 -0.000020 0.001869 -0.004665 -0.000785 -0.002178 -0.002371 -0.004649 -0.000684 -0.001513 -0.003985 -0.003296 0.000247 0.004630 -0.003439 -0.001699 0.002789 0.001408 0.001295 0.001549 
0.001335 -0.000187 -0.003235 -0.000349 -0.002305 -0.002208 -0.002573 0.004021 0.002542 -0.004219 0.004154 0.004417 -0.000843 0.001436 0.001476 0.004745 0.003320 0.004913 -0.003574 0.001411 0.003313 -0.001132 -0.001467 0.003321 -0.000082 -0.001541 -0.000170 0.001881 -0.003585 0.001340 0.004848 0.000998 -0.001414 -0.002331 0.000618 -0.002923 0.004712 0.000101 -0.003330 -0.000974 -0.004426 0.003793 -0.004962 -0.001750 0.004454 -0.003599 0.000251 -0.001344 -0.002867 -0.001918 -0.000659 -0.003350 0.001892 0.001490 0.001839 0.001138 -0.000488 0.001784 -0.000224 0.003526 0.003275 -0.003381 -0.002315 -0.002279 -0.001038 -0.003849 0.002595 0.000129 0.004854 0.003036 0.004039 -0.000344 0.001732 0.002431 0.004046 -0.002292 0.002877 0.001992 -0.002850 -0.001808 0.004072 0.001876 0.000381 -0.002486 0.003596 0.004738 0.003270 0.004580 0.002232 -0.004266 -0.002152 0.000797 0.003261 0.002522 -0.001353 0.000070 0.002463 -0.004743 0.002698 -0.001194 
Univeristy. -0.002690 -0.003122 0.000740 -0.003830 0.000602 0.002073 0.000819 0.002412 0.003734 -0.000887 0.002369 0.003645 0.004232 -0.004174 -0.000398 0.002923 -0.002074 -0.001205 0.002873 0.003693 -0.002624 0.000001 0.003935 0.003034 -0.002634 -0.001152 -0.003006 -0.001393 -0.001241 0.005475 0.001141 0.002359 0.004111 0.000486 0.003238 -0.002922 0.003706 0.001593 -0.003723 0.003664 -0.001146 -0.005007 -0.005806 0.004717 -0.002286 0.001385 -0.003281 -0.002914 -0.003977 0.003308 0.000179 -0.001806 -0.002332 -0.004291 -0.000924 0.001928 0.002022 -0.004428 0.004761 0.001881 -0.001645 -0.004018 -0.002116 0.002563 0.004584 -0.004000 0.003909 -0.004827 -0.000049 0.002036 -0.000347 -0.000109 -0.003197 0.002661 -0.004362 0.001429 0.003112 -0.002237 0.001853 0.004148 -0.001599 -0.001630 -0.004181 -0.001664 -0.001681 0.000573 0.000998 -0.003695 0.002503 0.004297 -0.000587 0.000421 0.000685 -0.004188 0.001882 -0.001911 -0.003507 0.001966 0.004049 -0.002227 
0.000081 -0.002915 0.004018 0.003706 0.000830 -0.003435 -0.005314 0.001047 0.002866 0.005285 0.001363 -0.004019 -0.001392 0.000324 0.001595 -0.001733 0.001130 0.000369 0.001861 0.004932 0.004148 -0.004283 0.001759 -0.004560 -0.000449 -0.001704 -0.005252 -0.002264 0.003896 0.005656 -0.001392 -0.004898 0.001274 -0.000242 0.004932 -0.003248 0.002008 0.002840 0.001099 -0.002912 0.000708 0.003072 -0.003101 0.003820 -0.002521 -0.000590 0.005267 0.002940 -0.004493 0.002225 -0.001238 0.002092 0.003700 0.001166 -0.003286 0.000267 -0.003674 -0.003637 -0.004500 -0.003123 -0.001623 -0.001389 0.000723 -0.004402 -0.000853 0.001970 0.004874 -0.003209 -0.002876 0.004469 -0.004625 -0.000571 -0.000006 0.001313 0.001957 -0.001699 -0.004939 0.000198 -0.005760 0.000806 0.001815 0.004267 0.004768 0.002168 0.002802 -0.004782 0.000386 -0.000756 -0.002119 -0.004889 0.003561 -0.006325 -0.005568 0.002663 0.000388 0.003858 -0.000651 0.001975 0.003066 0.003046 
studying -0.003832 0.004047 -0.002547 -0.005090 0.002844 0.000565 0.004624 -0.000977 0.001847 -0.000244 -0.004851 0.003184 0.005044 -0.003229 -0.004486 0.003417 -0.000142 0.001117 0.000405 0.005173 0.003159 -0.003361 0.001322 -0.001764 -0.005089 -0.000927 -0.000825 0.003054 0.001900 0.004807 -0.000770 0.004414 -0.003364 0.005801 -0.002604 -0.001004 -0.001552 0.000983 -0.004830 0.004128 -0.001476 -0.000220 0.003470 0.002714 -0.001267 -0.000193 -0.004906 -0.002914 -0.002261 -0.004356 0.000881 -0.003622 -0.000063 -0.002704 -0.003832 -0.003308 -0.001007 0.004333 -0.004434 -0.000297 -0.002002 -0.003153 0.003104 0.001426 0.000695 -0.003202 -0.002839 -0.002679 -0.002366 0.001872 0.004310 0.004701 -0.001217 0.002738 -0.000849 -0.003516 -0.002761 0.002086 0.003261 -0.002550 -0.002024 0.003104 -0.001292 0.001824 0.001532 -0.001583 -0.001633 -0.000612 -0.003334 0.001299 0.000536 0.001820 -0.002314 0.001820 -0.004435 0.003914 -0.001663 -0.002969 0.003051 0.001114 
0.000748 0.003937 0.001988 0.002125 -0.001974 0.001975 -0.000963 0.002648 0.003479 -0.004040 -0.000662 0.002634 -0.004614 -0.001451 0.002422 0.000989 0.004530 0.004897 0.000321 -0.000880 0.004191 0.002661 -0.002435 0.000932 0.000151 0.001998 0.001186 0.002832 0.000691 -0.004437 0.000716 0.003726 -0.003407 -0.001487 -0.001815 -0.004980 0.001137 -0.001497 -0.001876 0.000622 0.000105 -0.004308 -0.002434 -0.003064 0.001777 0.002733 -0.003960 0.002869 -0.003063 0.004785 -0.004420 -0.000172 -0.001136 -0.000498 0.000715 0.001718 0.003339 -0.002958 -0.001524 0.004946 -0.001355 0.000060 -0.001604 -0.001582 -0.004438 0.003713 0.002506 0.003541 -0.002628 -0.004343 -0.004664 0.004220 -0.000145 -0.003952 0.003918 -0.003138 0.001294 -0.002457 -0.002216 0.000374 0.002469 -0.004703 -0.001037 -0.003839 -0.003338 -0.003032 0.001989 -0.001871 -0.000347 0.002711 0.003891 0.002685 -0.000276 -0.004818 0.004202 -0.001264 -0.002343 -0.000462 0.004952 -0.002314 
of -0.003268 0.003435 0.000673 0.003444 0.002731 -0.002971 -0.001604 0.002414 0.003936 0.002977 -0.002348 0.003504 0.001126 -0.003565 0.000472 -0.001881 -0.002416 -0.004941 0.001388 0.000165 -0.000909 -0.000995 -0.002569 -0.003951 0.003928 0.000929 -0.001867 0.004678 0.002877 -0.004012 -0.004476 -0.002543 -0.000782 0.001838 0.004135 -0.001707 -0.001268 -0.001364 0.000998 0.003591 -0.000298 -0.000963 -0.004355 0.002259 0.002908 -0.001802 0.000106 -0.004298 0.001632 0.003774 -0.001087 -0.002174 0.001655 -0.004077 -0.000903 -0.004961 0.001257 -0.002699 0.000188 -0.003755 0.001221 0.003063 0.004220 0.002852 0.004828 0.000867 -0.004278 -0.001234 -0.002142 0.000867 0.001726 0.000393 -0.001406 -0.004279 0.001763 -0.003362 -0.002184 0.000585 -0.002135 -0.001090 -0.001195 0.003115 0.004562 0.001112 -0.002657 0.003467 -0.001113 -0.000347 0.001712 0.004298 0.000369 0.003438 0.002691 0.000764 0.001041 0.003873 0.003563 0.000520 -0.004566 0.004865 
-0.004590 -0.001290 -0.002514 0.000408 -0.001305 -0.003614 0.000150 -0.002008 -0.001254 -0.003271 -0.001590 0.000507 0.001347 -0.000107 -0.000703 0.004360 0.004778 -0.001464 0.002342 -0.001543 -0.000180 -0.002186 -0.000424 0.004205 -0.000245 -0.004617 -0.004469 -0.004491 0.000363 0.001400 -0.002761 -0.001223 -0.000073 -0.001481 0.004229 0.002913 -0.000773 0.001899 -0.001466 -0.000675 0.001544 -0.000806 0.004684 0.001918 0.002661 0.000562 -0.000288 -0.002901 0.000857 -0.001342 0.003147 0.003775 -0.003085 -0.001360 -0.002977 0.003351 0.004115 -0.001838 -0.004132 -0.000267 -0.001761 -0.002619 -0.003284 -0.000672 -0.002431 -0.001046 -0.000903 0.001043 0.002884 -0.001964 -0.004957 -0.003717 -0.002533 0.002285 -0.000916 -0.001046 -0.002901 0.001856 -0.001748 -0.004536 0.000061 -0.000594 0.002078 0.004717 -0.002865 0.000090 0.002594 -0.001879 0.001600 0.001565 0.004330 -0.000418 -0.000760 0.003987 0.004319 -0.004495 -0.001665 0.000013 0.002090 0.004798 
Computer -0.000334 0.004799 -0.000324 -0.001134 -0.003485 -0.003999 0.001608 0.001615 0.004663 0.003775 0.004917 -0.000547 0.002390 0.000778 -0.000866 0.001284 0.000479 0.002165 -0.003710 -0.001483 0.002211 -0.004407 0.000917 -0.004945 0.003366 0.001219 0.000046 -0.002693 0.002227 0.001698 0.003208 0.004178 -0.000426 0.002187 0.002435 -0.002926 -0.001312 0.000342 0.002258 -0.000099 -0.004649 -0.003681 -0.000293 -0.000933 -0.002156 0.002775 0.004314 0.003477 -0.003051 0.004865 -0.001889 0.004537 -0.004054 0.000247 -0.004371 -0.003846 0.000617 -0.000925 0.003899 0.004734 -0.000757 0.004008 0.002452 -0.000818 0.002606 0.000200 0.003319 0.000907 0.003986 -0.004692 0.001032 0.003813 -0.000835 -0.000512 0.002622 0.004306 -0.003577 -0.004603 -0.002380 0.001294 -0.003456 -0.001810 -0.001942 -0.003817 0.002807 -0.004475 -0.001534 0.002878 0.000993 -0.002443 -0.004124 -0.002215 -0.000615 -0.003058 -0.000180 -0.000188 -0.001237 -0.001163 0.002328 0.000365 
-0.004332 -0.001586 -0.004468 0.001513 0.001990 0.002135 0.002093 -0.001186 -0.003827 -0.002259 -0.000907 -0.000985 0.001498 0.002888 0.001064 -0.003978 0.003747 -0.002267 -0.004964 -0.003758 0.001201 0.004930 0.000542 -0.001418 0.004642 -0.000362 -0.000387 0.004447 -0.002650 -0.000488 -0.003221 -0.002257 -0.004893 0.004708 -0.000928 0.004878 -0.003806 -0.002118 -0.003977 0.004756 0.001392 0.004191 -0.000336 -0.001215 0.003983 0.001292 0.004526 0.000871 -0.000252 -0.000661 -0.002361 -0.002581 -0.003032 0.000990 -0.001464 -0.002663 -0.003576 0.001401 -0.000753 0.002030 0.001398 -0.001772 0.004303 -0.004596 -0.002330 0.001627 0.000737 0.003867 0.003523 0.004254 -0.001921 -0.003676 -0.000263 0.001266 -0.001640 0.004181 -0.000406 0.000320 -0.003887 0.001344 -0.001126 0.001570 -0.001633 0.004221 -0.004140 -0.002325 0.004654 0.001717 0.001331 0.003788 -0.002995 -0.004762 -0.001429 -0.002432 -0.000047 -0.001310 0.003359 -0.000829 0.000527 -0.001519 
a 0.003482 0.001544 -0.001284 0.003461 0.000847 -0.001322 -0.005253 -0.005337 -0.001787 0.000559 -0.004482 -0.002247 0.000960 0.003949 -0.002495 -0.003797 -0.002115 0.005168 -0.000624 0.001815 -0.001245 -0.003409 0.003220 0.003676 -0.000791 -0.002305 0.003319 -0.002027 0.002171 -0.002302 -0.001398 -0.001821 -0.002333 -0.000763 -0.003489 -0.003904 -0.004537 -0.002859 0.000361 0.002037 -0.000030 -0.000338 0.003208 -0.000265 -0.003432 -0.001529 0.003981 0.005117 0.002827 0.002522 0.001348 -0.002469 0.000969 0.000329 -0.002602 -0.001483 0.001723 -0.002314 -0.004814 0.001809 0.004150 -0.003734 0.004869 0.004561 0.004594 -0.002521 0.002660 0.004893 0.004047 -0.003847 0.003104 0.004345 -0.004305 0.001768 -0.000747 -0.003349 -0.005083 0.002313 -0.001188 -0.001034 0.001738 0.001652 0.001675 -0.001819 0.004697 0.004615 -0.001295 -0.001707 -0.000567 -0.000547 -0.004591 0.001806 -0.001130 -0.004617 -0.001736 -0.004123 0.004262 -0.003731 -0.002835 -0.001376 
-0.003268 -0.001700 0.005572 0.001202 -0.000057 0.005952 0.000051 0.001016 -0.002632 0.001656 0.004313 0.000760 0.002036 -0.001049 -0.002072 -0.005479 -0.003775 -0.000583 -0.001549 -0.001125 -0.000766 0.000390 -0.002039 -0.003245 0.006134 -0.004235 -0.002130 0.000918 -0.002789 0.001839 0.000515 -0.000743 -0.002575 -0.004089 0.000825 -0.004156 0.004721 0.000869 -0.002788 0.000044 0.000323 0.002624 -0.005228 0.000490 0.002274 -0.004407 0.000774 0.005351 -0.002192 0.003968 -0.003417 -0.003890 0.002613 0.002228 0.001716 -0.003002 0.000073 -0.003713 0.002512 0.004345 -0.004037 0.003923 0.002592 -0.003549 0.001332 -0.000037 -0.004395 -0.003047 0.004076 0.000868 -0.001146 -0.002157 -0.004563 -0.003415 -0.005202 0.004056 -0.004165 0.003386 0.000721 -0.001118 0.002796 -0.001225 -0.003265 -0.001538 -0.005870 -0.005757 0.003663 0.002312 -0.001262 0.002082 -0.005776 0.000524 -0.005739 -0.004976 0.002866 -0.002542 -0.002809 0.005445 -0.002524 -0.005597 
in 0.001812 -0.001434 0.002254 0.001256 -0.003664 -0.002042 0.002199 0.004193 0.002717 0.002326 0.000675 -0.002976 0.001754 -0.005140 0.003833 0.001090 0.002619 -0.000830 -0.003796 0.004140 -0.000134 -0.004521 -0.002300 0.004670 -0.002507 0.000858 0.000176 0.004973 -0.002127 0.001122 -0.000074 -0.002543 -0.003884 -0.001631 0.002426 0.000509 -0.001027 0.002146 -0.001179 0.001362 0.001362 0.000192 -0.001204 0.002342 0.003477 0.002634 -0.001967 -0.004020 0.002150 0.002426 0.004947 0.000984 -0.004491 -0.000941 -0.003200 0.004134 0.003064 0.004661 -0.004227 -0.003204 0.001212 -0.002942 -0.000915 -0.003815 0.002259 -0.002590 0.001133 0.004942 -0.003614 -0.003480 0.001797 0.003419 0.005087 0.002262 0.004056 0.001905 -0.001266 -0.001731 0.000917 -0.002241 -0.004641 -0.001346 0.002068 0.002072 0.003760 0.004529 0.003351 -0.002005 0.003249 0.000036 0.001147 -0.004347 -0.002704 0.004724 -0.004762 -0.000534 0.002397 -0.002909 -0.002877 0.004714 
0.004847 -0.003008 -0.003854 0.001566 -0.001664 0.002021 -0.004657 -0.003731 -0.000625 0.004874 0.002168 -0.002691 -0.003757 -0.001796 -0.003850 0.003594 -0.000278 -0.002830 -0.000678 -0.003471 0.003095 -0.000574 -0.003785 0.000021 0.002141 -0.004870 0.003860 0.000476 -0.004858 -0.003063 0.001788 -0.003200 0.002879 0.000004 0.002030 0.000399 -0.001366 0.001987 -0.000882 -0.004820 -0.001812 0.003043 0.000083 -0.002451 -0.000178 -0.004174 0.004456 -0.003589 0.004317 -0.004505 0.004269 0.003175 0.004955 -0.000295 0.004052 0.001745 -0.002483 -0.001389 0.000837 -0.001472 0.000283 0.004872 0.004156 0.002430 0.004036 0.003642 -0.003961 0.004857 0.002057 0.002578 0.001017 -0.000284 0.000126 0.001837 -0.003877 0.003413 -0.003474 0.004073 0.000887 0.004854 0.002037 0.004445 -0.002660 -0.004555 -0.000060 0.000608 0.000014 -0.000907 -0.003982 0.002718 -0.004060 0.002204 -0.001450 0.003431 0.004649 0.003684 -0.001681 -0.002095 -0.001828 0.004940 
from -0.001470 0.004104 0.000549 -0.000457 -0.004747 0.001700 0.000933 0.004529 -0.004017 0.002275 -0.004513 -0.000603 0.003181 0.003647 -0.001617 0.003447 -0.002007 0.002028 0.003787 0.001517 -0.002737 -0.002091 -0.000953 0.001907 0.000085 0.002805 0.003768 0.000899 -0.004513 0.002220 -0.001397 0.001336 -0.001948 -0.004255 -0.001381 -0.003803 0.003069 0.000800 0.002395 0.002565 -0.000699 0.001986 -0.001372 -0.002057 -0.002638 0.004161 -0.002648 -0.003420 -0.000211 0.004036 -0.003444 0.000496 0.002035 0.002686 0.000981 -0.003657 0.004885 0.002875 0.000535 0.003157 -0.003532 -0.001585 -0.003204 0.002392 0.001038 -0.002039 -0.005012 -0.002500 0.004796 0.001398 0.003705 0.004934 -0.004400 0.002253 -0.001309 0.003913 0.004211 -0.004893 -0.003994 -0.003970 0.003186 -0.003397 -0.003768 0.004427 -0.000212 -0.000591 0.000129 -0.002882 0.002222 0.003361 0.004350 0.001900 0.000589 0.003927 0.002980 -0.001292 -0.002843 0.000895 -0.000338 0.003593 
0.000955 -0.000697 0.003401 0.001451 0.003575 0.004597 -0.003661 -0.001161 0.002338 0.004431 -0.000753 -0.001966 0.003024 -0.001037 -0.000842 -0.004558 0.003916 0.000848 -0.004399 -0.000031 -0.004206 -0.004756 0.000609 0.003021 0.001940 -0.000195 -0.001287 -0.001495 -0.001866 0.004688 -0.003057 0.002827 0.002659 0.002550 0.004832 0.004893 -0.003705 -0.001453 0.004410 -0.003891 0.002323 0.000334 0.000209 0.000382 -0.003475 -0.001931 -0.000740 0.004118 -0.002817 0.004408 0.001094 -0.003777 -0.004924 0.004506 -0.002257 -0.001896 0.003488 -0.003979 0.003737 0.003666 -0.001802 -0.000893 -0.003892 -0.000684 -0.002512 -0.003578 0.004388 0.003960 0.002139 0.003122 0.000607 -0.000995 -0.004566 -0.003137 -0.000704 -0.001644 0.003151 -0.002199 -0.002512 -0.001580 0.003574 -0.001407 0.004712 -0.001897 -0.002516 0.004394 0.003002 -0.001188 -0.001839 0.002861 -0.003114 0.004452 0.001386 0.004151 0.003398 0.001430 -0.004558 0.000919 0.002068 -0.001347 
Department 0.001966 -0.001545 0.005314 -0.003484 0.002374 0.003636 -0.002320 0.002941 0.002536 -0.001685 0.004390 -0.000603 0.004128 0.004478 -0.003319 -0.004499 0.003041 0.005688 -0.005083 -0.005098 -0.003435 0.000773 -0.002824 0.001604 -0.002568 0.000137 -0.001792 -0.000040 -0.003911 -0.004234 -0.001977 -0.000414 0.002110 0.004907 -0.004243 0.002904 0.001557 0.000247 0.000716 0.002690 -0.004065 -0.001669 -0.001122 0.004525 -0.004308 -0.000085 -0.004658 -0.000748 0.002855 -0.005118 -0.000937 -0.001933 -0.003878 -0.000577 -0.001698 0.003744 -0.003182 -0.004649 0.002717 0.003092 0.000481 0.000788 0.001091 0.004500 -0.002089 0.001753 -0.002530 0.002845 0.003943 -0.001519 -0.003750 -0.004007 0.001308 0.001197 0.000953 -0.004339 0.001684 0.005748 0.004045 -0.002215 0.003415 -0.003074 -0.001657 0.004785 0.000108 -0.002759 -0.005439 0.000665 0.000634 0.003414 0.002359 0.001005 -0.000698 -0.002569 0.002975 -0.004577 -0.004315 -0.003461 -0.004456 -0.003660 
-0.002967 0.003421 0.002580 -0.003968 -0.004184 -0.004615 -0.002460 -0.001237 0.001834 0.001108 -0.002687 0.001268 -0.001629 -0.001753 -0.003568 -0.002545 0.001206 -0.003041 0.001929 0.003730 -0.001379 -0.000101 0.003333 -0.001001 0.001397 0.002224 0.002677 0.004669 0.002816 0.001589 0.004491 0.004645 -0.001341 -0.001848 -0.004192 -0.004666 -0.002793 0.004569 -0.003842 -0.004358 -0.000759 -0.004005 -0.002428 -0.003024 -0.001957 0.000088 0.004582 0.003241 -0.000606 -0.002997 0.004219 0.000844 0.001575 -0.000604 -0.003986 -0.001308 -0.004633 0.002424 0.001998 -0.001811 0.004052 0.003743 -0.003297 0.003244 0.003410 0.003509 -0.002840 0.000261 0.001724 0.004379 0.002901 -0.001853 -0.000226 0.001508 -0.004044 -0.001691 0.000841 0.002554 0.000856 0.004652 0.000708 -0.002328 0.004634 0.003584 -0.002346 -0.000482 -0.003181 0.004009 0.002462 0.003249 -0.000556 -0.002665 -0.001588 -0.003479 -0.002960 -0.002533 0.001286 -0.000510 -0.003362 0.000813 
computer -0.000250 0.004994 -0.003321 -0.004330 0.003461 -0.002503 0.002988 -0.005022 -0.003051 -0.005275 -0.005329 0.002180 -0.004958 -0.001155 0.003170 0.002662 -0.002729 0.000099 -0.004184 0.004504 0.002215 0.005225 -0.004669 0.002724 -0.004548 0.000400 -0.003621 -0.002521 0.002175 -0.004523 0.004358 -0.002303 0.000289 -0.003391 0.000025 0.000865 -0.000651 0.003666 -0.002665 -0.001745 -0.004132 -0.001558 -0.001222 0.003773 0.002829 0.001408 -0.000866 -0.004775 -0.000114 0.000776 0.003347 0.001668 -0.004506 -0.003602 -0.000998 0.002677 -0.003079 0.004437 0.002335 0.002428 -0.002803 0.003050 -0.000335 -0.000275 0.003896 -0.002545 0.001906 -0.000002 0.000018 0.001254 0.000501 -0.003581 -0.001362 0.003901 -0.001219 0.002078 0.004154 0.003059 0.005019 -0.004076 0.003706 0.003200 -0.001979 0.003073 0.002623 0.000705 0.000126 -0.001741 0.000531 -0.001190 -0.003159 0.004416 0.004963 0.001126 0.003199 -0.003698 0.001506 -0.001059 0.001065 0.004474 
-0.002074 -0.002686 0.002277 0.002030 -0.002598 -0.000146 -0.004961 0.000258 -0.002292 -0.002128 -0.000041 -0.001269 -0.000375 -0.003475 -0.000932 -0.001147 -0.003566 0.003469 -0.003101 0.004533 0.003918 -0.001140 0.000481 0.002175 0.000357 -0.004645 -0.000654 0.000686 -0.003468 -0.001890 -0.004474 0.001473 -0.004276 0.004780 0.003551 -0.001559 0.003715 -0.004477 0.000454 -0.002002 -0.001213 0.002994 -0.004235 -0.000952 0.001720 0.002350 0.001515 0.002999 -0.004205 0.001248 0.002236 0.003756 -0.003206 -0.000158 0.004958 -0.002273 0.002998 0.000790 -0.000786 0.003816 -0.004811 -0.000753 -0.002965 0.003431 -0.003353 0.002871 0.002951 0.000478 0.003154 0.001817 0.003994 0.001362 0.002991 -0.001259 -0.000305 0.004991 -0.003061 -0.001199 0.002086 0.002769 -0.001720 -0.000349 -0.004303 -0.001395 0.002795 0.001448 -0.002439 -0.001096 -0.001235 -0.003151 -0.002793 0.002571 -0.003029 0.001010 -0.003331 0.001014 0.000695 0.001587 0.000475 -0.001861 
the -0.004283 -0.001264 -0.004341 0.000351 0.000320 -0.004886 0.001751 -0.003442 -0.004716 -0.004124 0.000782 -0.001835 0.003891 -0.001321 -0.002716 -0.000921 0.001921 0.003680 -0.001712 -0.004295 -0.002344 0.003534 0.003326 -0.003049 0.001878 0.003398 0.004427 0.004222 -0.002132 0.000928 -0.003875 0.001425 0.001406 -0.003720 -0.004551 0.004966 0.000774 0.002111 0.001932 0.003750 -0.003246 0.003576 -0.002396 -0.000815 0.002626 -0.001667 -0.003004 -0.004823 0.004172 -0.003464 -0.002859 -0.001868 -0.000327 0.000844 -0.002431 -0.003044 -0.000090 -0.003589 0.000311 0.003055 -0.001835 0.000894 -0.000101 0.000336 0.000219 0.004449 0.003364 -0.004795 0.004353 -0.000267 0.000237 -0.003432 0.001348 0.001901 0.002550 -0.004169 0.004486 -0.001389 0.004833 -0.003099 -0.000452 0.000018 0.004118 -0.003816 0.004815 -0.001222 -0.000063 0.002586 0.001068 0.000048 0.004320 -0.002487 0.001588 0.001484 0.001799 0.004872 0.002158 0.003243 -0.000596 0.001069 
0.000977 0.001452 0.003585 -0.001337 0.003178 -0.004026 -0.002569 0.000045 0.002302 0.000193 0.003279 0.004641 -0.003369 -0.003234 0.000660 0.001355 -0.003053 0.000849 0.001605 0.001595 -0.003470 0.000098 0.000646 -0.000733 0.001162 0.004669 0.004814 0.000776 -0.000876 -0.002782 0.003641 -0.004970 0.001197 0.002902 -0.000844 0.003434 0.000663 -0.000623 -0.004107 -0.000106 0.003303 -0.003200 0.000881 0.000818 -0.002602 -0.002174 0.003653 -0.004890 0.003729 -0.002388 -0.003761 0.004178 -0.004422 0.003813 0.003171 0.001928 -0.001275 -0.003412 0.001479 0.004765 0.001453 -0.001410 0.000696 0.001597 0.004542 0.004977 0.002853 0.003829 0.001273 0.003406 0.002480 -0.004632 -0.002571 0.004031 -0.003391 0.002619 0.001289 -0.000490 0.004771 0.004490 0.003636 0.004999 -0.001002 0.002386 -0.002250 -0.001846 0.003820 0.000214 -0.000586 -0.000869 -0.003731 0.004380 -0.003093 0.000587 -0.004123 0.003789 0.001012 -0.002322 0.004674 -0.000150 
